<<<<<<< HEAD
0.005780346820809248 62
-2.329157055060005 -0.36907280497203554 -0.40380744553553327 0.006066464965263878 0.006969739796518334 0.0 0.0 0.0 0.0 -2.833878617622057 -0.2434733264676279 -0.21356497112128378 -0.013276045645319657 -0.0031833334121134887 0.0 -0.006614565017681621 0.0 0.0 -3.523508285703337 0.04387458004809219 -0.19162254141961754 -0.01724078144932892 -0.0017799441982057208 -0.0007866589775578275 0.0 0.0 0.0 -0.680630536616618 -0.5572026157182535 -0.7523536333391543 0.350328510162401 -1.972990470922037 -0.49161548073895567 -0.1586034178055464 -0.001052035448267721 0.0 0.0 0.0 0.0 0.0 -1.927510144117923 -0.4881841166394663 -0.08728596061668979 -0.0013013845766072774 0.0 0.0 0.0 0.0 0.0 -3.0234071955440873 -0.10253028637878667 -0.10139412933318837 0.00034004783793586285 0.0 0.0 0.0 0.0 0.0 -0.292063665961558 -0.05229132282199965 -0.5308848787861573 0.15971523723797315 
=======
0.16666666666666666 62
0.014289189952905894 0.004522850448145533 0.013826558551242625 0.0 0.0 0.0 0.0 0.0 0.0 0.023846029004074558 0.019893091266791032 0.007360432475346813 0.0 0.0 0.0 0.0 0.0 0.0 0.01936473042718908 -0.00043818248114182176 0.009523248122466098 0.0 0.0 0.0 0.0 0.0 0.0 0.02132747356916865 0.0047119061744432 0.0003998567093043525 0.009735811959731966 -0.032538552426561264 -0.011884692034551902 -0.005020480882374665 0.0 0.0 0.0 0.0 0.0 0.0 -0.01570009669795617 -0.009480516104933587 -0.004018130993433214 0.0 0.0 0.0 0.0 0.0 0.0 -0.04067877302992586 -0.005109020644179181 -0.004470832612256774 0.0 0.0 0.0 0.0 0.0 0.0 -0.010140683467777977 -0.0006390639204426539 -0.002127018523947085 -0.04201317767016951 
>>>>>>> 65aaa93b4d3e53a9f0f1fe1356dc6232f0837a87
